{
    "biases": [
        [
            0.0737658441066742,
            -0.05180422589182854,
            0.14532966911792755,
            0.41425833106040955
        ],
        [
            0.2714892029762268,
            0.2570786774158478,
            -0.06420328468084335
        ],
        [
            -0.9377993941307068,
            0.7048103213310242
        ]
    ],
    "layer_count": 3,
    "layers": [
        4,
        3,
        2
    ],
    "weights": [
        [
            [
                -0.3981846570968628,
                0.3878172039985657,
                -0.2642073929309845
            ],
            [
                -0.1354803889989853,
                0.26157474517822266,
                0.03397521749138832
            ],
            [
                -0.3584511876106262,
                -0.3099050223827362,
                -0.2516932487487793
            ],
            [
                -0.38540568947792053,
                -0.087061308324337,
                0.3428069055080414
            ]
        ],
        [
            [
                -0.05265060439705849,
                0.48025819659233093,
                0.3639478087425232,
                -0.44702258706092834
            ],
            [
                -0.2100883424282074,
                -0.45186105370521545,
                0.10155748575925827,
                -0.5053114295005798
            ],
            [
                -0.19169020652770996,
                0.27573999762535095,
                0.38753241300582886,
                0.21396078169345856
            ]
        ],
        [
            [
                -1.0411098003387451,
                -0.21554534137248993,
                -0.2524065673351288
            ],
            [
                0.8971587419509888,
                0.3806924521923065,
                0.6946534514427185
            ]
        ]
    ]
}