{
    "biases": [
        [
            0.09053774923086166,
            -0.1007423847913742,
            0.12169115990400314,
            0.47269222140312195
        ],
        [
            -0.19043001532554626,
            0.3174383044242859,
            -0.05805078148841858
        ],
        [
            0.8480737805366516,
            -1.0941561460494995
        ]
    ],
    "layer_count": 3,
    "layers": [
        4,
        3,
        2
    ],
    "weights": [
        [
            [
                0.44466888904571533,
                0.2586156129837036,
                0.021848320960998535,
                -0.3940923810005188
            ],
            [
                -0.0853380560874939,
                -0.026399582624435425,
                -0.23544439673423767,
                -0.3136676549911499
            ],
            [
                0.27423369884490967,
                0.2369181513786316,
                -0.043849676847457886,
                -0.283449649810791
            ],
            [
                0.06843394041061401,
                -0.36478182673454285,
                -0.48121020197868347,
                -0.1758590042591095
            ]
        ],
        [
            [
                -0.2975885570049286,
                0.26113542914390564,
                0.09629455953836441,
                -0.6995347142219543
            ],
            [
                -0.1776742935180664,
                -0.4242538511753082,
                0.13606710731983185,
                -0.471009224653244
            ],
            [
                -0.18795576691627502,
                0.2774764597415924,
                0.3905581831932068,
                0.21883167326450348
            ]
        ],
        [
            [
                -0.2287786602973938,
                0.5280781388282776,
                0.7126932144165039
            ],
            [
                0.0799315795302391,
                -0.36863747239112854,
                -0.2776801288127899
            ]
        ]
    ]
}